{
  "input_nodes": 5,
  "hidden_nodes": 8,
  "output_nodes": 2,
  "weights_ih": {
    "rows": 8,
    "cols": 5,
    "data": [
      [
        -1.0109027156977268,
        0.6080667533247175,
        0.23953826922237909,
        0.8848890452353633,
        -0.8700929183355169
      ],
      [
        -0.7078671849369326,
        -0.662036148067251,
        0.5815457960425455,
        -0.5918668200790957,
        0.10585451849970351
      ],
      [
        -0.978478257135226,
        -0.4089510991083314,
        0.3137831401997402,
        -0.8626666198501276,
        0.31586722598391237
      ],
      [
        -0.6003769535704175,
        0.2790670924784546,
        0.2114005196554709,
        -0.21710301218053615,
        0.7009428142305834
      ],
      [
        0.9284632969931299,
        -0.08451691805010064,
        -0.12711979796713768,
        0.5185231797331586,
        -0.6351223228435235
      ],
      [
        -0.32978137860425655,
        -0.3083963644517923,
        0.31854449542382524,
        0.8843240516176238,
        0.04561162422674769
      ],
      [
        -0.09529232311499669,
        0.9211556948283866,
        -0.1979934845251342,
        -0.7647109998655162,
        -0.1458582831967068
      ],
      [
        0.9971965713589457,
        0.5978341735416008,
        -0.9686559164725095,
        -0.18275841631589573,
        -0.27669401033785945
      ]
    ]
  },
  "weights_ho": {
    "rows": 2,
    "cols": 8,
    "data": [
      [
        -0.31641051144359233,
        0.9967655726604021,
        0.07503962619113214,
        -0.06600618222088128,
        0.43906862115869094,
        -0.2930813825139138,
        -0.22639405607018315,
        -0.21838652978476186
      ],
      [
        0.8710779883092781,
        0.8985143788312118,
        0.081273768952752,
        0.18157993446915316,
        -0.7460987966721304,
        -0.3476164409735274,
        -0.10544109205406915,
        0.6296965941740003
      ]
    ]
  },
  "bias_h": {
    "rows": 8,
    "cols": 1,
    "data": [
      [
        0.17225537815081138
      ],
      [
        0.6695372907297736
      ],
      [
        -0.012120427746074913
      ],
      [
        -0.7328058522959096
      ],
      [
        -0.38376950550781175
      ],
      [
        0.7264733219808799
      ],
      [
        0.8046932127745687
      ],
      [
        0.6966666883107382
      ]
    ]
  },
  "bias_o": {
    "rows": 2,
    "cols": 1,
    "data": [
      [
        -0.14845909888851594
      ],
      [
        -0.7658997735215852
      ]
    ]
  },
  "learning_rate": 0.1,
  "activation_function": {}
}
